<?xml version="1.0"?>
<opencv_storage>
<stage1>
  <maxWeakCount>5</maxWeakCount>
  <stageThreshold>-2.5758489966392517e-01</stageThreshold>
  <weakClassifiers>
    <_>
      <internalNodes>
        0 -1 84653 -4.6476446092128754e-02</internalNodes>
      <leafValues>
        7.1428573131561279e-01 -6.1006289720535278e-01</leafValues></_>
    <_>
      <internalNodes>
        0 -1 119119 -1.4088600873947144e-02</internalNodes>
      <leafValues>
        9.3866163492202759e-01 -3.5558104515075684e-01</leafValues></_>
    <_>
      <internalNodes>
        0 -1 132400 -4.9517527222633362e-03</internalNodes>
      <leafValues>
        8.1907856464385986e-01 -4.7571846842765808e-01</leafValues></_>
    <_>
      <internalNodes>
        0 -1 37980 -1.4183526218403131e-04</internalNodes>
      <leafValues>
        -9.3682414293289185e-01 3.6476689577102661e-01</leafValues></_>
    <_>
      <internalNodes>
        0 -1 95503 4.1595138609409332e-03</internalNodes>
      <leafValues>
        -3.4888803958892822e-01 8.1901061534881592e-01</leafValues></_></weakClassifiers></stage1>
</opencv_storage>
