<?xml version="1.0"?>
<opencv_storage>
<stage19>
  <maxWeakCount>5</maxWeakCount>
  <stageThreshold>-5.9126293659210205e-01</stageThreshold>
  <weakClassifiers>
    <_>
      <internalNodes>
        0 -1 77372 -3.9468733593821526e-03</internalNodes>
      <leafValues>
        8.7500000000000000e-01 -4.8314607143402100e-01</leafValues></_>
    <_>
      <internalNodes>
        0 -1 162253 3.8107878062874079e-03</internalNodes>
      <leafValues>
        1.8329653143882751e-01 -7.6025170087814331e-01</leafValues></_>
    <_>
      <internalNodes>
        0 -1 157278 2.0606856560334563e-04</internalNodes>
      <leafValues>
        -5.0826847553253174e-01 3.3373451232910156e-01</leafValues></_>
    <_>
      <internalNodes>
        0 -1 49459 -2.1568359807133675e-04</internalNodes>
      <leafValues>
        -8.4325313568115234e-01 2.0684763789176941e-01</leafValues></_>
    <_>
      <internalNodes>
        0 -1 27478 -9.7256168723106384e-02</internalNodes>
      <leafValues>
        -7.1315968036651611e-01 2.1810518205165863e-01</leafValues></_></weakClassifiers></stage19>
</opencv_storage>
