<?xml version="1.0"?>
<opencv_storage>
<stage4>
  <maxWeakCount>6</maxWeakCount>
  <stageThreshold>-1.0615240335464478e+00</stageThreshold>
  <weakClassifiers>
    <_>
      <internalNodes>
        0 -1 125066 -1.9012264907360077e-02</internalNodes>
      <leafValues>
        1. -5.2873563766479492e-01</leafValues></_>
    <_>
      <internalNodes>
        0 -1 142983 7.0510338991880417e-03</internalNodes>
      <leafValues>
        -3.4478268027305603e-01 8.9601844549179077e-01</leafValues></_>
    <_>
      <internalNodes>
        0 -1 157590 -1.0806700447574258e-03</internalNodes>
      <leafValues>
        -8.3320701122283936e-01 4.0845566987991333e-01</leafValues></_>
    <_>
      <internalNodes>
        0 -1 142536 1.3088773936033249e-02</internalNodes>
      <leafValues>
        -3.3931836485862732e-01 7.2648864984512329e-01</leafValues></_>
    <_>
      <internalNodes>
        0 -1 162125 7.5995654333382845e-04</internalNodes>
      <leafValues>
        4.7059634327888489e-01 -6.1027169227600098e-01</leafValues></_>
    <_>
      <internalNodes>
        0 -1 10585 -1.0765199840534478e-04</internalNodes>
      <leafValues>
        -7.2773939371109009e-01 3.9192217588424683e-01</leafValues></_></weakClassifiers></stage4>
</opencv_storage>
